encog,BasicNetwork,java,3.4.0,1,1712747477630
[BASIC]
[BASIC:PARAMS]
[BASIC:NETWORK]
beginTraining=0
connectionLimit=0
contextTargetOffset=0,0,0,0,0
contextTargetSize=0,0,0,0,0
endTraining=4
hasContext=f
inputCount=3
layerCounts=3,17,33,65,4
layerFeedCounts=3,16,32,64,3
layerContextCount=0,0,0,0,0
layerIndex=0,3,20,53,118
output=0.3819325398,0,0.6180674602,1.7044941416,0,2.4407704245,0.0244358656,0,0,0,0.2402740951,1.8007448033,1.6119873548,0,0.3620429254,0,0,1.9867168334,0,1,0,0,0,0,0,0,4.1111531546,0,0,0,0,0,0,0,0,0,0.6779610097,0,0,0,0,0,0.9347741064,0,0,0,0,0,0,0.7064800773,0,0,1,0,0,0.1814232541,0,0,0.7103238112,0,0,1.3962617813,0.1071125977,0,0,0.4061295598,0,0,0,0,0,0,0,0,0.0487724324,0,0,0.1311618334,0,0.521260628,0.5381059819,0.1715483803,0.7372222372,0.8109738027,0.4977080299,0.4327054343,0,0,0.2904436144,0,0,0.5541588777,0,0,0,1.2517606877,0.7189426873,1.7418730467,0,0.2110765694,0,0.334218234,0.209655043,0.1682513753,0.2770412042,0,0.2776526958,0,0,0,0,0,0,1.0375001172,0,0.3097245502,0.4838269506,1,0.05,0.2,0.35,1
outputCount=3
weightIndex=0,51,579,2659,2915
weights=##0
##double#2915
   0.1303298742,-0.2716157228,0.5478046917,0.557600885,-5.3494606316,0.0886097883,-0.3469520494,-2.4332283602,0.2389019323,-0.1550552694,-0.031470187,-0.7930380471,-0.828915453,-1.1515167862,0.0571303075,-0.5852014861,0.6457627375,0.6984781198,-0.4339986528,-0.4993362588,-55.56250886,0.1527544454,-0.5447139159,0.6349951549,-7.2834747299,-0.3584451358,-0.2286290104,0.5566551755,-201.1281477904,0.1397231568,-0.0408347027,-0.812554661,-0.1596395036,0.3351896585,-0.531468988,-0.8950599688,0.3437852422,-0.5948033048,4.2886308265,1.2924953222,-0.6702020779,2.0323919476,0.3986957071,-0.6149548584,1.0272431852,0.5651221399,-0.5330564145,-0.1052607298,1.002748222,-0.1605939943,-0.2084824144,-0.6416324134,0.8336394918,0.2002412808,0.5843130142,-0.1539303914,0.8741183883,0.7788527891,0.8999319731,-0.3045912298,-0.5765314953,0.4625455562,-0.2864580532,0.9136479387,-0.9048748735,0.3546084793,-0.4462506156,-1.0990689772,0.2918132748,0.8897278789,-0.6851982886,0.8193808002,-0.8597498375,-0.2531578849,-0.9845223087,-0.224189866,0.7229871443,-0.5854279192,-0.4651237073,-0.1906634598,-1.1085966098,0.0792904878,0.1835522954,0.2674838086,-0.9693204246,0.4366641199,0.4140653272,0.2839023267,0.5541027673,0.2207083989,-0.0466699423,-0.1457151231,0.8240920394,0.1519661745,-0.7812462752,0.8008097729,0.8477371841,-0.7200257754,-0.0123043308,0.5647159378,0.0383686351,-0.81239058,0.3660164918,0.1886728863,0.1084247563,0.8819494233,0.4453554418,-0.2648619583,0.7142122265,-0.9934331072,0.221857017,-0.2134321133,-0.1312055113,-1.0045206922,-0.4657636689,-0.6770852467,0.1702296111,0.251361335,-0.1987835496,0.4658058289,0.0908373577,0.3756679309,-0.3388490877,0.1930899025,0.756215341,0.8320664732,-0.8117670604,0.029597424,0.7097679265,-0.9471651213,0.0970863307,-0.2915447382,0.6199540933,0.7375427228,-0.3565808445,0.293547743,0.5093721314,0.0348104599,0.8885074726,0.3894875482,-0.359002831,0.5402713806,0.3611406374,0.646698278,-0.9306015204,0.17225042,1.7099693766,-0.431287309,0.8284982579,-0.4252191183,0.7044980773,0.4121846561,-0.089614488,0.1144639036,0.6372262397,0.22348669,-0.0672871745,-0.8598625546,-0.7493280613,0.8144496727,-0.6153047348,0.5754787649,0.6066908827,-0.4759035297,0.2320583303,0.5742269116,0.7680354263,0.532277104,-0.1625414617,-0.0802395911,-0.9157019192,-0.9842647324,-0.2390093606,0.7314908911,0.9867406815,0.6523030878,-0.7845846093,0.1313603903,-0.1930184409,-0.1673311365,0.3268651205,-0.0723629397,0.1220015479,0.0661895791,0.4717592722,0.268414308,0.651132996,-0.4873349965,-0.8257551775,-1.2963337438,0.1138289824,0.6034898126,0.0526808191,0.3494715396,-0.2921348534,-0.9347035289,-0.134825038,-0.4370438538,0.8495391527,1.0094431124,-0.6391048902,0.6128092327,0.254130899,0.1263145637,0.4820927219,-0.0557910122,0.0762874432,0.4714884025,-0.438277092,0.6356046624,-0.7865566398,0.2701496318,-0.4105263203,0.6145358094,0.3407820601,-0.8471759088,-0.209105694,-0.4098500281,0.2082263564,0.7244236902,0.5543694576,-0.6838864459,-0.3168085796,-0.3986788914,0.4707475377,-0.1026984767,-0.8410185563,-0.2491763631,0.911294853,-0.1446931407,0.7291119379,-0.4158017971,-0.1639390211,-0.361335886,-0.8696464117,-0.6424012436,-0.9715452138,0.60382486,0.2100086527,0.5028085884,-0.8058425316,0.7030760785,0.77050789,0.017022445,0.3152925981,0.8459855364,0.2817988503,-0.561950661,-0.0495012509,0.9006271065,0.9001841085,-0.8376146839,-0.3629316708,-0.9601165572,-0.0870674551,-0.3607255478,0.0221118298,0.7304708137,-0.2260952505,-0.5204674873,-0.9320988632,0.757000304,0.045095705,-0.1933279648,-0.3796719019,-0.4097649418,0.0816067237,-0.0355718051,-0.4785997297,0.540198921,-0.7809567849,-0.5305628444,-0.9117634038,0.8209229676,-0.6519579725,-0.1087540652,-0.1570840924,0.1005682473,0.3950647275,-0.5136458999,-0.3237966131,0.4858452427,0.8794028938,0.4238824294,-0.9601873854,0.8167989505,-0.8813378189,0.9702528907,0.0627100773,0.7108492319,-0.9931501648,-0.3595081451,-0.2185127598,-0.6972371727,0.8361274074,-0.3597453781,0.1610921701,-0.3395403439,0.808693134,-0.8547306495,0.3373118798,0.9950761262,0.0952916129,0.0355352673,0.3472537503,-0.3082031821,-0.0883129701,0.8715440778,-0.8934438718,-0.0675064878,0.0517557266,-0.7317020974,-0.0366907673,-0.2927581414,-0.3734699105,0.5663412281,0.4605705987,-0.9787270155,-0.3462700413,0.3751923308,0.1895973545,0.2557694969,0.9296420438,-0.1040335214,0.2787048081,-0.0583144929,-0.6720551377,0.7429911927,0.614850304,-0.5749894339,-0.2738786945,1.1119793157,-0.0228017292,0.4365134434,-0.6250265208,0.1505073366,0.523752661,0.6419999857,0.9509013839,-0.7319093028,-0.8126970233,-0.7865932027,0.5530813968,-0.813159617,-0.0728963908,-0.4679204195,-0.192982598,-0.5532665056,-0.820299368,0.6743646253,-0.8249912536,-0.8767625945,0.4210364339,-0.3171816868,0.058152357,-0.0833012885,0.3962453567,-0.2570620199,0.6430935541,0.864698492,-0.2818409682,0.8178657609,0.3482161224,-0.593796207,0.0938965444,0.1710617885,-0.6454146795,-0.0879821042,0.7964709167,-0.9739609946,0.1794327712,-0.2811348458,-0.5989444572,0.0364782259,-0.1952652096,-0.0184253049,-0.5332334892,0.6059124668,-0.7334730608,-1.0496515089,0.7134617182,-0.6419130258,0.4091937231,0.9963950856,-0.4666755973,0.855414973,-0.8048267481,-0.4906200326,-0.6636086684,-0.9061025807,0.6652922863,0.0049887669,0.2861414227,-0.3368919657,-0.095893751,-0.3271843061,0.202376763,-0.5817664388,0.9682964857,0.5675500537,0.4763978181,-0.5448385213,-0.5554018246,0.292936932,-0.6236924335,-0.5690547751,-0.2158350873,-0.9515810129,-0.5478815175,-0.131881539,-0.4255322727,-0.8438796733,0.7108761401,0.8880322459,-0.3289094795,-0.2567624539,-0.7880080848,-0.6239775161,0.3246950163,0.6422789725,0.0550599229,0.4391319105,0.9788220943,-0.5686341221,-0.3729516479,-0.2577321539,0.7916212426,-0.887949099,0.8333097955,0.4861144792,0.4363766895,-0.3617728808,0.427875376,0.1564411885,0.3512055754,-0.3099404055,0.2042652186,-0.2241865388,0.9999917784,-0.6451923853,0.1077983661,-0.8598294363,-0.5198674498,0.424304795,0.7744874278,-0.8632970497,-0.650867953,0.4110119274,0.8936994057,0.2582094763,-0.4357636184,-0.019458334,-0.1703734755,-1.133212046,-0.604436248,-0.8634316401,0.1422129515,-0.3999610933,-0.5919535927,-0.1611766319,0.3455611016,0.6028225057,0.9575036563,-0.3789743178,0.9942559214,-0.2663968903,-0.099676086,-0.9060594758,0.460880067,0.0626172692,0.7686367939,0.4157310299,0.6778851803,-0.2687951143,-0.542525925,-0.6487958441,-0.6898708995,0.1054334228,-0.2004440156,-0.8378983134,-0.5927637698,0.9356009037,0.9966007476,0.860794991,0.3485124072,-0.3349464386,-0.854774558,-0.1257393833,0.5705485737,0.271492884,-0.356556643,0.2371607919,-0.8454935759,0.1538185281,0.4339942336,0.3291689584,0.0915908733,0.9645807549,0.5151455836,0.2717437345,-0.9918531103,0.1837860983,-0.4001557154,-0.6529481058,0.1687292873,0.6233100319,-0.204637935,-0.0570198921,-0.1201561017,0.5321888451,0.6131148222,-0.1512198635,0.2585896033,-0.2504206251,0.657831321,0.7649992087,-0.45257819,0.1574103757,0.1410062497,0.7349031026,-0.2296978105,0.4996992088,-0.1355999244,0.0036337986,0.2936288921,-0.6560502618,0.1338630314,0.1282197832,0.0070729751,0.9747401643,-0.3588719784,-0.3446059289,0.1554239667,0.1899627754,0.6484441847,-0.8577484356,0.8022230301,-0.0980771804,-0.4036768926,-0.0023543475,0.2932241456,0.1422344569,0.0951610564,-0.9026189502,0.9945047716,-0.9608465641,0.711192075,-0.8625791148,0.5177160039,0.6235926326,-0.1640485436,0.5197740918,-0.8868085247,-0.1986381745,0.6405283292,0.4683089588,0.5441985114,-0.6323595527,0.5681602451,0.4646032695,0.5576008535,-0.6872458941,-0.8513032006,0.8938124237,-0.7659776015,-0.637841817,-0.1605994551,-0.7197672046,-0.6887110258,0.9744508464,-0.3400061948,-0.4143687559,0.0963521802,-0.2790380416,0.9728288686,-0.4910345093,0.5789608629,0.376459482,0.2832249799,0.009001767,-0.3850724591,0.5295094816,0.3154888638,0.3806279722,0.0690358971,0.4154165425,0.8402158284,-0.7604475115,0.7910391181,0.4870193311,-0.4269524831,-0.781809688,-0.7790491579,-0.9001145026,-0.5648724962,0.4430702886,0.5714918771,-0.4536950436,0.3451067907,-0.1649547883,0.5835204803,0.5570354138,0.7792532548,-0.8351802437,0.5038617486,0.7990209432,-0.9992387217,-0.6635743353,-0.7836774426,0.9879169765,-0.4891560702,-0.5473359436,-0.4122429516,-0.9043630243,-0.7676540163,-0.6961857457,0.9342269701,0.4194351481,0.4460694254,0.8332979204,0.0829411808,0.1788217025,-0.4499084612,-0.6047873305,0.9395688293,0.2274318465,0.8139182483,0.5066982321,-0.3664644465,0.0740623959,0.5330469391,0.9240658074,0.9149726669,-0.330051298,0.3977943428,-0.2371370121,-0.416268837,0.2241939145,0.914683071,-0.7986214679,0.8271798401,0.2950156068,-0.9099602102,0.2351244999,-0.5809304555,-0.3256613696,-0.7600051854,-0.255023737,0.5318044023,-0.8313625697,-0.6535170764,0.8875849812,-0.5135055969,-0.6575771349,-0.9678002469,-0.0296764675,-0.3978263034,0.204220136,0.7509101852,0.7804716078,0.3352297359,-0.7939151995,0.920696451,-0.3885151753,0.856086646,-0.4804051995,0.6573962156,-0.358187863,-0.0670771959,-0.2568485892,-0.3184615171,0.733210605,0.3702357492,-0.307363251,-0.6646632879,-0.1478397914,-0.945402972,-0.0316363946,-0.4364562563,-0.6964393744,0.8087309893,0.496063031,0.0687105235,-0.0043800131,-0.5695046311,-0.1100409137,-0.8202663712,0.3927069847,-0.6717535064,0.8976570689,0.4758170547,-0.0189272016,-0.2693600635,0.8953519267,0.3099972961,-0.2703161433,-0.6127544509,-0.2639329392,0.5324615882,-0.8452994842,-0.6530512451,-0.1582611922,-0.188414654,0.2135190706,-0.4646274896,-0.5596248758,-0.2310291602,-0.746687386,-0.9032824574,0.2345605238,0.4035618791,-0.9895015161,0.3239341206,0.9626000905,-0.3338971947,-0.7577653119,0.0953498618,-0.820104822,0.2983071408,-0.2285842949,0.0765007465,-0.8701864313,0.8606690147,-0.0491810582,0.9847006087,0.796338415,-0.8367665489,0.2077903855,0.6444253392,0.0004576121,-0.4669534071,-0.6512494817,-0.3933556808,-0.4081546366,-0.2929045882,-0.4500988155,-0.3035451715,0.5144043966,-0.0358091714,-0.7871136521,-0.5445155591,0.9535970309,0.536363493,-0.5552988184,0.8858712565,-0.9713797551,-0.465209337,-0.2122029642,-0.7747114783,-0.4663867838,0.669835376,0.4028367365,0.9789803672,-0.3727147306,-0.8212650526,0.6624248112,-0.1570781114,0.0469779935,0.8863968847,-0.4108367239,0.4674683247,0.4467611188,-0.5405260048,-0.6754792521,0.6787499663,0.831461491,0.3503254231,0.8102061566,-0.3376228133,-0.8277194373,0.1731179694,-0.0633219215,-0.1809561152,0.112900608,0.8882300194,-0.0559218404,0.3893323772,0.630674867,-0.9310244732,-1.1710770893,-0.5965609769,0.6363671415,-1.1083900061,0.0000790892,0.4849577978,0.0426491353,-0.344197723,0.1557735726,-0.5472265633,-0.0958821394,0.3176280568,-0.8665062604,0.6287228748,0.0428809202,0.5250038319,0.0736755894,0.8617547081,-0.142430096,-0.1500446122,-0.6338617018,-1.096266008,-0.5877263897,-0.858754939,0.4710349912,0.542023717,0.4104149377,-0.2944453226,0.6881716048,0.2271909507,-0.1451490638,-0.2640883081,-0.608681872,0.0964703654,-0.9059594435,-0.2657094279,-0.0801295584,-0.37608509,0.173321721,0.7372144676,-0.1323087009,-0.7234549905,-0.7773572792,-0.9664151963,-0.4581811328,0.5178748598,0.1206215966,0.2658360501,0.6864966629,-1.0593812949,0.9394289876,-0.4465443333,0.8381881552,0.4426248389,0.5599284125,-0.5364200275,0.2817499387,0.0451251509,-0.0990152785,-0.8513534363,-0.7679926056,0.3692549355,-0.3502483304,0.5086762308,0.8749068979,-0.5283240486,0.899743409,0.6252441726,-0.3694179173,-0.1203738964,-0.2815947671,-0.5464152591,0.5887008268,0.1541581647,0.6211791986,0.4999641405,-0.1486055508,-0.8390024596,-0.9783284333,-0.4369089723,-0.9753015912,-0.2720652681,-0.7700384391,0.7188585051,0.8875667564,0.5522447812,0.5975004736,-0.6161371404,0.5295213609,-0.7372753519,-0.879057318,0.8157739291,0.7220881277,-0.3477135619,0.2040778721,-0.3402914443,0.6631161337,-0.3678299728,-1.0199042003,0.1172930172,0.2032400774,-0.3976468636,0.7909066439,-0.2969891365,-0.4569391567,0.4521734829,0.4510249411,-0.0364219774,0.7187610458,-0.2000031597,-0.0678467325,-0.4733190054,-0.6067973178,-0.6449320651,-0.4340547523,0.1762651495,0.409581476,-0.2827930988,0.4690366257,-0.3704145067,-0.8555628598,-0.3404256549,-0.3549764106,-0.1830599191,-0.1970318777,-0.4622411271,-1.0672776485,0.4446381349,-0.366898688,0.0096987973,-1.0661615173,-0.0594583209,0.2735686412,0.0298264849,-1.0626403273,0.5264663065,-0.6791417708,0.8955029371,0.6294672375,-0.4449084952,0.8411277683,-0.0131299626,-0.5439272589,-0.5921258108,-0.9217024459,-0.268972329,-0.4841412057,0.8619320432,0.1526656,0.7775535198,0.2402399226,-0.3836505663,-0.5675396715,0.3228883163,0.8182961238,-0.884538177,0.8524589995,0.1020800182,0.3504901489,0.3374217397,0.4356849771,-0.9921362901,-0.8930785703,-1.0989165506,0.5530701587,0.6169081201,0.4305120773,0.1512703653,-0.5060304089,-0.0738817949,-0.9034260245,-0.8005140516,0.1277969305,-0.1355226787,0.2172211788,0.4200913271,-0.0673537873,0.3994401895,0.1309456579,0.4619399343,-0.5796635273,0.2235410301,-0.02430271,-0.487572319,0.6051849742,-0.0060342591,0.8546689601,-0.8879060195,-0.3090782233,-0.1540599451,-0.4196599392,0.2196332182,-0.5733963346,-0.7465368732,0.3684036419,0.6758495277,0.7468484899,-0.0936827518,-0.1770208022,-1.5017106905,-0.9887918837,0.8177704976,-0.4184487619,415.3879026324,-1.1359098205,0.7898244519,0.681424738,0.2207769571,-0.1824257812,0.3686295558,-0.8554274251,1.5924991147,-0.1073919268,0.610227169,-0.1144654313,-0.8248780211,-0.1881366102,-0.2496119035,11.1903111633,-0.4789664408,0.3571309226,1.0467724364,0.9309971508,-0.477032658,0.1213351563,1.1560646346,-0.7033871726,0.0486301482,0.9470612963,-0.2846683938,-0.2463144778,0.1617959319,0.7627817401,1.2347019939,0.3544007313,-0.0749611283,0.101580362,-0.5614595195,0.6610728652,1.1404099919,1.3141643884,-4.0986330025,0.8706054052,0.2411526659,0.8666711466,0.0557998407,0.0272831714,-0.801602452,-7.5077944709,-0.8180894109,0.3828783716,-0.7130833609,-5.5753727695,0.1015681833,0.0287521667,0.2054510408,-0.7940571075,0.2372078404,-0.9052313739,0.5550838567,0.8848941868,0.242344437,0.4570299759,-0.2800866826,-0.6986497323,0.0530282213,0.7556497219,0.601080575,0.9504498533,0.0665689469,-0.5277183193,0.5257750538,0.3517579627,0.6543137005,-0.8271939463,-0.3603534611,0.4232040024,0.0371342949,-0.0301043254,-0.5587136984,-0.0724065615,0.8712355857,0.5623331309,-0.0735660841,-0.9816176128,-0.7591916527,-0.9725236384,-0.1562076214,-0.1546402679,-0.3691208021,-0.4414029213,0.0414496634,0.6144960419,-0.9826057019,-0.8381390214,-0.602084531,-0.2203626924,0.199613717,0.5925440046,-0.3572671323,-0.5685429868,0.5156029342,-0.7007341398,-0.6285360063,0.035734575,0.5214704253,-0.0857447467,0.0333910329,0.3130361695,-0.4795298334,-0.9337995181,-0.9367653693,0.6524290144,-0.3228728425,-0.6569030427,0.57675196,-0.625917809,-0.0398876974,-0.9721242299,-0.2319417077,-0.3539175582,-0.7428103701,0.2283434458,-0.900008348,0.7355816249,-0.5582704561,0.3292523876,0.0861489202,-0.2606212875,-0.5237877937,0.6528719566,-0.1046062443,-0.7670533567,-0.7029098726,-0.2188998967,-0.2837399114,-0.5120778826,-0.7028682667,-0.3117268381,0.2068404548,0.3871282005,0.450342897,-0.3361733688,0.1671037102,-0.6161587994,-0.2639995697,0.6359769929,-0.7641891901,0.1711228761,0.8645777075,-0.9947220736,0.2621741206,0.3493700602,0.4033047186,0.4053211621,-0.9038270839,0.4698846067,0.4027475711,0.6644848007,0.5183863296,0.7280262903,0.4984669458,0.4122324344,-0.6104266045,-0.5996994801,0.3946299912,-0.4814458443,0.9662959747,-0.0685817848,-0.1758596441,-0.7465789052,-0.0856932294,-0.3254423439,-0.1067990502,0.5682643249,-0.1640596133,0.0142304145,-0.6446366865,0.8898336177,-0.9296635226,0.4409159287,-0.8255810152,-0.2006943044,0.0256633574,-0.3998801018,-0.4857602152,-0.0237965354,-0.7428940542,0.3069373379,-0.4508821355,-0.3243709127,0.7917460344,0.7628090958,-0.9448510904,0.5628555043,-0.38201973,0.5845515079,-0.4221276332,-0.0920150297,-0.8886904724,-0.3234239415,-0.3535075539,0.1564656113,0.1990758072,0.5914942378,-0.5607647555,0.3519696019,-0.9843114246,0.6324459963,0.9308236583,0.9700059832,0.5470749899,-0.1175452462,-0.6013919876,-0.9584653574,0.6518138241,0.6746907815,0.6384278751,0.339170833,0.2851356851,0.5809125621,0.2612872519,0.5534365984,0.9778679875,0.6462222878,-0.4118491918,0.3153588174,-0.8452805207,-0.1304529931,-0.3053854658,0.1830361833,-0.4670611839,0.5768963475,-0.8221172297,0.2179435035,-0.5229152461,0.4728693471,0.0078549415,-0.6596622595,-0.937810384,0.9776224111,-0.8983768577,-0.4684179204,-0.3650279328,-0.6937832825,-0.7232414076,-0.0058975923,0.1306604809,0.5465198586,0.1098767173,-1.0586096127,-1.1366576112,-0.3395831346,-0.47418033,0.3852221189,0.4433224286,-0.1797264791,0.8110428627,-1.0888007215,-0.6781538616,0.3160151341,0.1307371874,0.3638969874,0.3407790558,-0.7147461999,-0.1793149931,-0.0950836874,0.5434764756,-0.6645761712,0.4809249949,0.5427506845,-0.0691870534,0.0437552741,-0.5245923045,0.7822024427,0.2792779841,0.5413766939,0.7755836268,-0.7508628555,0.2604459003,0.8804212761,-0.4448422075,-0.1830806086,-0.88650721,-0.4590205443,0.2560761091,0.003839549,-0.1720656086,-0.5699891103,-0.5467610836,0.6583179325,-0.7750736796,-0.6233690343,-0.449600295,-0.3125078779,-0.1035011654,-0.0081614978,0.6323204686,-0.7022396006,0.1778356241,0.2397125231,0.3870478215,-0.6637219298,0.5579838536,-0.4778294567,-0.6193320476,-0.7585923975,-0.7024478841,-0.8722796913,-0.2250727588,0.6858249922,-0.7584215522,-0.7380491303,-0.5715656385,-0.0661641211,-0.3473212792,0.5541479408,0.8455735869,-0.6861912185,-0.3096799111,0.8071981117,0.4401855585,0.7474361147,-0.3726987112,-1.0877020628,-0.0702051217,0.3733173316,0.9747831775,79.5017705331,0.8673676435,-0.1070524041,-0.4349604034,0.4548412555,-0.4385904031,-0.9536514853,-0.072992474,-0.4859238631,0.5589126264,0.6041582515,-0.1789189134,0.3398635695,0.5969045937,0.2848706152,-0.47311701,-0.685879742,-0.88104349,0.2841422861,-0.4680997312,-0.9195810986,0.9803481905,-0.562356308,0.6688758706,0.1141073921,0.057630396,-0.5135776676,-0.3775782088,-0.1234288383,-0.1649994142,-0.3921366933,0.4778386001,-0.5542996011,-0.7770470242,-0.6784538473,-0.8532251709,0.4526801772,0.0931262128,-2.3013399086,-0.2822400953,-0.1142489001,1.0243825103,0.770647268,0.9735018441,0.6796685507,-3.2146032538,-0.7367050754,0.8144165459,0.572352466,-0.0875668414,-0.7855371097,0.3736053883,0.6471942501,0.3221870193,-0.5770488423,0.5644981282,0.4207429154,-0.7981745537,-0.1207577365,0.7773887085,0.4517665545,0.1114939045,0.1713347468,-0.0412856681,-0.566196463,-0.5046176731,0.7814107975,-0.2649065262,0.9409791858,0.4630621275,0.465049088,0.6476206443,-0.2187287574,0.2638666594,-0.2242491888,-0.0472366363,-0.9298376741,-0.9400730031,-0.2399609369,-0.921437601,0.453759042,0.6481592886,-0.8899410095,-0.2254133686,-0.5673058605,-0.3433427239,0.1138871457,-0.3143270727,0.114405543,0.6352893658,0.9388294468,-0.3737173636,-0.6221045279,0.6850002075,0.252781364,0.0283455325,-0.9216014212,0.0833734452,0.9431891153,-0.3285929038,0.2837271236,0.8824551987,-0.6396920536,-0.7232834701,-0.027321282,-0.3107047484,0.6502724347,-0.8465086593,-0.0355852166,-0.8365832734,0.4265729142,0.6027018464,-0.8200069393,-0.6450235122,-0.3424880228,0.7760291635,0.6703749352,0.0221170272,0.5329829823,-0.1647453848,-0.6255527449,-0.3726736029,-0.1205560215,0.9865475596,-0.6081109122,-0.3791231633,0.4210132364,0.5455355796,0.1227340413,0.7510260615,-1.0012231525,-0.4605834379,0.9488982815,-0.7584968702,-0.691921713,0.1645533188,0.3611416518,-0.1396646158,-0.8297130712,0.941167735,0.360755807,0.5992249578,-0.7026354604,-0.1086180144,0.297281001,0.4302517554,-0.4579785574,0.268268216,-0.9129766025,0.0545926172,0.9011060061,0.804234149,0.4220681157,-0.352727156,0.5249647346,-0.0540518015,0.7412205812,0.348017666,0.9523986606,-0.0324501192,-0.2559892245,-0.0183207028,-0.6673819328,0.0753606108,-0.8035711554,-0.1347889495,-0.0604665428,0.2860082249,-0.826153494,0.4982676657,-0.6521328058,0.7048418627,-0.2847093411,0.7643196865,0.9977102903,-0.0605914563,-0.2661280386,-0.221560096,0.7469274891,0.3130018858,-0.2931428379,-0.1405051739,-0.02257437,-0.0047710667,0.1580083564,-0.1806957589,0.2723891515,0.0536857759,0.415149151,0.3441875293,-1.0749093468,0.8293427749,-0.7887445948,0.6470246942,-1.0194668877,-0.1597645633,-0.4919295045,0.6151402937,0.8739534005,-0.9143413862,-0.713251702,0.1597014832,-0.2435342348,0.2557399889,-0.5642766085,-0.1601903492,-1.0615583731,-0.5145565426,-0.9921757526,-0.1286134096,0.0849716946,0.0615692795,0.6148880249,0.0269868122,0.0854801719,0.3309183536,-0.1858740612,0.3228354815,-0.5976646157,0.2914168442,-0.4479261196,-0.5971583904,-0.6191487556,-0.7478227236,0.6560154528,0.3731977443,-0.3851212578,0.6373126825,-0.3127059523,0.7277664832,0.6727597464,-0.7711913149,-0.7061155123,-0.4619118687,0.4245245337,0.8240144016,-1.0900531857,0.9489964273,0.4573038084,0.8728332482,-0.7710439607,-0.849082786,0.2451126679,0.2729661723,0.0484335403,-0.2243217282,-0.5052154082,0.6097637318,0.5634570882,0.6573817909,0.7252607384,-0.4810430222,-0.8672104914,0.0218446806,-0.5137027203,-0.0922734865,-0.6520786644,0.7350282696,-0.013604932,0.7392204063,0.2230994757,-0.6736528863,0.0829491797,-0.4946107906,-0.0187698916,-0.0393636246,-0.1860916267,-0.1467086078,0.4159958544,-0.3265254441,0.429410963,-0.046117554,-0.6761554812,0.4594173205,-0.7738481122,-0.5838281366,0.6166234609,-0.470859802,-0.2031388789,-0.8526965969,-0.8917344519,-0.8237931541,0.5099875061,-0.3620116433,0.1480922507,0.1320851307,-0.8801946034,-0.3986240592,-0.2724745787,-0.4005069597,-0.2648230719,-0.9257388823,0.7710248594,0.6612127705,-0.1605613328,-0.5323742521,-0.3892448164,0.9719763607,-0.5464896279,0.892273712,0.9069577541,-0.8635222994,0.0928755285,0.1810339653,0.3666634709,-0.5967083692,-0.1231909896,-0.0212983718,-0.6889087215,0.3522080636,0.4355422323,-0.4883594313,-0.0724426433,0.476376732,-0.5919828272,-0.5350037938,0.1393691405,-0.2755176449,0.6868306786,0.222955734,-0.410910059,0.7490459231,0.9098376127,0.4067408262,0.9143733946,-1.9266571929,-0.9997189537,-0.8005685031,-0.4863555018,0.2236458383,0.3093396507,0.0357878605,-0.0900654215,-0.8754811753,0.031501334,0.7662577734,-0.438589789,0.5460171665,0.0572589299,0.6074402506,-0.8872750144,0.6013975291,-0.0589659045,-0.3039252722,-0.0636453599,-0.6080853217,0.4106555369,0.3641842289,-0.4476693687,-0.5633214675,-0.566678062,-0.0535691332,-0.6123815572,0.227671839,-0.3574817866,-0.715850024,0.9512201867,0.7109116706,0.0563433664,0.3165685864,0.5809335149,0.2099064498,0.4406052368,1.9979551247,0.1666508939,0.3442669981,-0.003653243,-0.2317752184,-0.0160227782,-0.5999536656,9.8478419168,0.7372804408,-0.6688666895,-0.1301011426,0.1948388991,-0.8437884215,0.3642457906,0.6418386272,0.2935513448,-0.2625599456,0.4898519882,0.6126873628,-0.2280044076,0.8446543072,-0.6311592618,0.3201317125,-0.7062049147,0.8047375077,0.1172456525,-0.61789749,0.1411458626,0.1680352219,0.7926281045,0.5050507986,-0.4478627622,-0.3472710014,0.9215654829,0.7055157274,-0.6342629438,0.7044696021,-0.5410475037,0.1153544263,0.7137574869,-0.2727240876,-0.5935432481,-0.4369077603,-0.2964879406,-0.2809278722,-0.4159372021,0.3966490874,-0.9154619532,0.2080271421,0.5391808724,0.3096873076,0.7519138072,-0.2621842921,0.2895764216,0.2889128635,0.2810822339,-0.8073831122,0.5470240566,-0.1173309685,-0.5301073265,-0.1380458989,0.9865702071,0.1759049819,0.6980268021,0.8238199555,0.7850666605,0.0054726935,0.3552722086,-0.5937954387,0.386161466,-0.8407604207,-0.4454230416,0.0004402447,0.2272650045,-0.107960306,-0.9476634073,-0.6970804573,-0.4195825055,0.7632609209,0.358680825,-0.2840820276,-0.5017804008,0.4813611998,0.3148012549,0.4551813428,-0.792928123,0.0871368651,-0.0780240947,-0.3634559397,-0.0971036296,-0.3012566745,-1.0614463288,0.658073683,-0.3992734539,0.0569402523,0.4701349646,-0.9352477573,-0.0817518473,-0.119346151,-0.4610446075,-0.8120074035,-0.3077296583,0.7170214017,0.3664369026,-0.8978500737,-0.5611741456,-0.057591356,0.1090379243,0.480981494,-0.463460401,-0.6698029161,-0.1707723617,-0.1940299757,-0.2967655969,0.8247981711,-0.535896806,0.0666873154,-0.267738925,0.5887480075,0.607902827,0.6414305017,-0.3033982762,0.7525842842,-0.2958411543,0.1544766008,-0.4417833969,0.8484433901,-0.7331072943,0.0719031743,0.3220545793,0.3095693475,0.3390641436,0.7996179371,-0.1293218945,0.743789823,0.6987592816,-0.3531430958,0.7557105347,-0.3555174707,-0.3724804409,0.8648353808,-0.1216263136,0.021099611,-0.8817297204,0.5388830861,-0.0493703054,0.1003491499,0.06755061,0.2696053979,-0.5838025448,-0.8738968434,0.4547314482,-0.8914763615,-0.8029632141,0.3195721143,0.1707829377,0.3677604885,0.2811099192,-0.720001998,-0.3481425621,0.1462477468,-0.2222768267,0.4274262448,-0.8796109351,0.5091277696,-0.8741369151,-0.0146106312,0.4863937979,0.6113614102,0.6032731667,-0.8091076767,-0.2831612974,0.7023650429,0.3251300405,0.3672572517,-0.2915422972,-0.9028996243,0.0590912258,0.1141410554,0.5472998395,-0.0055278616,0.2389607838,-0.7179939236,0.135316004,-0.2112219618,-0.205409308,-0.362494411,-0.4693409669,0.1760205544,0.3877448952,0.8148767739,-0.3653024517,0.5004177446,0.0965820861,-0.013569184,0.2444257574,0.2774330007,-0.2711993143,0.2262505115,-0.8046142198,0.528138846,-0.4864712084,-0.6581462946,-0.421316961,-0.2529256381,0.7505866933,0.41604109,0.5766815679,-0.3329533712,0.3640476925,0.3190331528,0.0448394096,-0.580638304,0.8305249286,-0.3729528645,-0.2763126088,-0.6895271912,-0.4162602427,-0.8197549678,-0.1244896928,-0.5910076149,-0.3024235842,-0.819638919,-0.2092510477,-0.145682251,-0.3522063389,0.9925023662,0.3368237557,0.4311217642,0.0148494404,0.4794698693,-0.7664365627,0.768621575,0.7347528175,0.4578855251,0.9086636571,0.4963951139,0.4180189527,-0.5006876139,0.7635854178,-0.8113358085,0.4061566906,0.4030766908,0.6849868763,0.2894964638,-0.882439052,-0.0328957282,0.4451778891,-0.8556590152,-0.4644707233,-0.024416758,-0.9924878357,0.4573708069,0.7833065442,0.8337776475,-0.0763262745,0.499242635,0.6621991451,0.8713320581,0.2846124991,0.6354535084,-0.1839948075,0.0607313192,-0.5211249878,-0.170475923,0.1200912723,-0.8409510158,0.6856521755,-0.4476745305,-0.9723522813,-0.5910214879,0.3907523508,-0.0651682111,-0.96422229,-0.246915282,-0.1345854316,0.834158926,0.1623051629,0.1252151111,-0.7891665007,0.1170892713,-0.1493023514,-0.5113452361,-0.0267967504,-0.1294935867,0.3289116398,0.2493001451,-0.0690377919,-0.046700423,0.6672605032,-0.6597463547,0.3486794012,-0.199945804,0.3472773931,-0.2024684692,-0.7262814325,-0.65105771,-0.4870194871,-0.9773142642,0.1011728672,0.7493830232,0.4993520453,-0.7944064704,-0.115049223,-0.0326655646,0.5745526518,-0.6570867184,0.9546519293,0.778924501,0.4832704473,-0.5363119766,-0.202800657,-0.1827316778,-0.2974198486,-0.0495887685,0.7339434343,-0.4798486647,-0.9333670874,-0.6877754052,-0.8047732698,0.8185419009,-0.2389560898,-0.1373218414,-0.336222169,-0.8895864881,0.1781672155,-0.0413231139,0.9608368581,0.8025246211,-0.2172232638,-0.5859463049,0.901668507,-0.0838698261,-0.5698497682,0.8574166948,-0.2733880663,-0.6755084269,-0.6411777179,0.0861796217,0.5407188542,0.0531357037,-0.180280624,0.555022408,0.4604091032,0.8261802631,1.0754932592,0.1172410329,-0.2132796364,-0.0019600004,-0.188714628,0.6314394047,0.9811885688,0.1566755868,-0.0203967861,0.5915549706,-0.1245816161,0.7965186378,-0.1066887239,-0.9252118463,0.951596118,0.86425529,-0.8147871409,-0.6898887319,0.0778400505,-0.2080901711,0.3019343783,0.5773438323,0.5271715264,0.4825257678,-0.8437708302,-0.4493938646,0.1762670726,-0.7219961411,-0.6961922384,-0.8374655532,0.2908981651,0.7120853102,-0.6228395207
   -0.4981373518,0.0192130543,-0.2982663086,-0.6146382038,0.7028605276,0.1647996744,0.2371775634,-0.5760849838,-0.0043052222,0.6611426948,-0.178405279,-0.7926893565,-0.2486979255,-0.4388803262,-0.8556128201,0.1115598906,0.4161894967,-0.42296171,0.0535518436,1.3579226469,0.5549560802,0.6448200058,-0.0935967375,0.7052207384,0.8495272025,-0.2099605696,0.7310898162,-0.8247104218,0.0834254849,-0.7146976308,0.0194796182,0.5540483914,-1.0506393454,-0.7535639387,-0.4616436789,0.5319231495,0.6023101002,0.1586220923,-0.034773537,0.3881818109,-0.2700505491,-0.3221536672,0.7467421068,0.3397796874,-0.2035688454,-0.779866096,0.1812976153,-0.2638551787,-0.0049610865,-0.1652429139,-0.3817540923,-0.1688553384,-1.0699800361,0.6735874815,0.3231354965,-0.6953633028,0.3941990737,0.3628173546,-0.9424873327,-0.8597923842,-0.9534137553,-0.8947523623,0.077715534,0.0462994672,-1.0064009707,0.1282178699,-0.4931496286,0.5169138569,-0.2905021858,-0.8903348581,0.2191710313,0.094356827,-1.1371303003,0.7949856937,-0.1668100775,-0.6056595005,-1.0850512182,0.6470299863,-0.1085777362,0.3414502275,-0.1227151097,-0.6045127074,-0.8659399549,-0.7203222216,-0.4349770369,-0.6788448751,0.3338936985,0.3027720491,-0.2333887629,-0.0507713026,0.2892441494,0.9125375904,-0.1215991822,-0.899373168,0.6963320782,0.6425817823,-0.5117093466,-0.0588983614,-0.6037968153,0.3035800484,-0.4019504083,0.8669933466,0.8668090142,-0.8141477028,-0.7337391425,0.9842362034,0.8871157697,-0.1178473059,0.0710553392,0.6778037405,0.5622007331,0.8219247819,0.6652129747,0.6473611981,0.2016389854,-0.8537380495,-0.4964663069,-0.6184603354,-0.6559217691,-0.1847099495,0.3865806052,0.4588804449,-0.9230505843,0.8294925866,0.710129954,-0.1374059934,0.9641201888,-0.6455982347,0.463757532,-0.5922434858,-0.3938382041,-0.3401442044,-0.9564087458,-0.2050085377,0.3568585948,-0.0899924692,0.3583260656,0.6206463617,0.3492005397,0.7559052476,0.0928989155,0.914635165,0.1392899164,0.8942485302,-0.3628608725,0.0727720941,-0.1882613748,0.6357142862,-0.5013130538,0.0700453811,-0.8802076217,-0.9866415761,0.6435349124,-0.9490787189,0.1669393774,-0.2106834086,0.0103828832,0.4868650188,-0.4508118102,-0.3212296851,0.8946865865,0.6064780802,0.7511937241,0.3683869946,0.0482895128,-0.6303107679,-0.4370717454,0.7655744884,0.2299975109,-0.7327495508,-0.5518982828,0.4605070257,-0.1529972119,-0.0536025654,-0.004805933,-0.8083592335,-0.0244568274,-0.3482342277,0.8436667731,-0.6844496963,-0.7183825402,0.5283348847,-1.0453279144,-1.0941485137,-1.086295961,0.4531502864,-0.6743701261,0.2687361213,0.7720055013,0.2403206753,-0.0593444071,0.7454548032,0.3261946998,-0.8253229127,-0.9525283143,-0.2403347707,-0.081860401,-0.6742755295,-0.2948973193,-0.1079630143,-0.2866044264,-0.5486473965,-0.178631841,-0.3467881562,-0.3404327691,-0.6653705668,0.8429837083,0.4630611666,-0.0975492149,0.0459961476,0.2883175138,0.1694998344,0.7261733277,0.7962494454,-0.9411939038,-0.9141030131,-0.4942658947,-0.384206048,0.6387819375,0.1517283509,-0.3398605844,0.9936884343,0.3029756735,-0.233175415,-0.8415835628,0.8063374595,0.5013826389,0.0916714012,-0.0606617497,-0.6841239425,-0.6536933348,0.2330747847,-0.7996875927,0.9074169982,-0.8659816056,-0.6220135919,-0.6643759142,-0.2956108092,-0.4825752518,0.1712268133,0.41613956,0.0601200754,0.3816735566,0.2915629108,-0.4315875553,-0.928147985,-0.9024721584,-0.860542638,-0.5607251801,-0.1671080833,-0.2741684484,-0.1334788159,0.4600108857,0.6239529444,-0.7137856549,-0.451351239,-0.6741900483,-0.5932264888,-0.1164319732,-0.565636295,-0.728274501,-0.7148526842,0.1213747604,0.4698027286,-0.7965015286,-0.120691983,0.4798030498,-0.2720152694,0.5618459884,0.7993546547,0.086433072,-0.9077163384,0.9704987824,-0.2796314846,-0.5391070455,0.8062963352,-0.8226292544,-0.0273401358,0.1279925221,-0.9047952012,0.1193448508,-0.191892021,-0.0405091554,0.0996600649,-0.7652711376,-0.7840328756,-0.1319651183,0.2007314337,0.8293854013,0.5434583393,-0.0347868396,-0.9669027214,-0.3988854909,0.0847572679,-0.3265480951,-0.18425971,-0.7496208463,-0.0279989256,0.5935054471,0.0910248118,-0.8806595704,-0.108992288,-0.7837585773,0.5561961799,-0.713333111,0.5267914552,-0.7499341391,0.9916185128,0.936539757,-0.2945117858,-0.0153494763,0.904036587,-0.6798810019,-0.802100153,0.1368032911,0.740543388,-0.2810349895,-0.9133921511,-0.8675835302,0.157655056,-0.0562685626,-0.8148668847,-0.8382076069,-0.4806119623,-0.0856934365,-0.1478482081,0.7846069104,-0.3278168036,0.745935999,0.1791038788,0.2729036887,-0.2561919048,0.0875829225,-0.7471408346,-0.5794010484,0.6149168227,0.2213541213,-0.9870442618,-0.1459120949,-0.2350829386,0.1129823735,0.624021386,-0.0184539876,0.7226098628,-0.8084847697,-0.201479951,-0.0653217306,-0.1103871237,0.1190611782,0.6747384265,-0.0351855424,-0.4805397918,0.8357389704,0.8975588999,0.5441632247,0.3635826254,0.2031825243,0.0567647946,-0.2714169207,-0.2162603481,0.3607557835,-0.506705398,-0.4148677131,-0.6137885057,-0.5605612042,0.9050633167,-0.5267406041,-0.9095780829,-0.735456947,-0.9514795762,0.7971995474,0.2651819957,0.2751679115,-0.1587372117,0.1756904395,0.0490257217,0.833563923,-0.7295213353,0.2809352639,-0.2166209061,-0.3846440664,0.6907053186,0.4920680288,0.2291382724,-0.5611196106,-0.1072543166,-0.6794458744,0.0974342787,0.3096095485,0.3432507742,-0.3797593778,0.8066104165,-0.053040399,0.8684660756,-0.5630915419,-0.7414805167,0.0021529166,0.6615594289,0.652306055,-0.4313430555,0.1982646519,-0.9656798758,-0.5077735472,0.6867175105,-1.0424951211,-0.1164612699,-0.8537805351,-0.6341587756,0.1321521428,0.2687250209,0.1661563626,-1.0154493898,-0.1815180842,0.7394375822,-0.5282307126,0.1378977736,1.0249438017,1.0621073274,-0.0181878696,0.1094355701,-0.3771035003,0.6321758219,-0.4845647216,-0.0181070214,-0.4180812861,0.5718969458,-0.7628634864,-0.1993337468,0.6165492911,0.8943396397,-0.1114177218,0.9695458799,-0.7189211228,0.4842821628,-0.0949803971,0.2875959651,-0.2609767913,-0.6390355835,-0.9610204721,0.6693374337,-0.5486683479,0.010944028,0.6822589783,-0.3203462736,0.7029982431,1.0292803978,-0.6009508427,-0.1093401141,-0.1008385785,0.1917280946,0.2777926201,0.5946362179,0.9818742426,-0.7011296601,-0.3324152617,-0.72281827,-0.7291242211,0.0719014718,0.2918367681,0.9055260683,-0.2297412335,0.4058799144,-0.1408546451,-0.6189742358,-0.151655038,0.2856152512,-0.5055179275,-0.7882274292,0.2852939872,1.6786850854,-0.922804766,0.4908580698,-0.5591157299,-0.2025937387,1.0775029871,-0.8692802594,0.022092639,-0.3949096768,-2.1262231902,0.8385220288,-0.3581515035,0.8863755554,0.1536777332,-0.5366648861,0.3352542451,-0.4463174987,0.6403351259,-0.2245878264,-0.9338842368,-0.7231764277,-0.1281636548,0.9529716276,0.6265410646,0.7620615773,0.4258307753,-0.9584692627,-0.9560963281,0.3469611562,0.2274008327,-0.6486158812,-0.7775283744,0.8994130846,-0.0144835471,0.6300485543,-0.2257121781,0.1385331548,-0.0105828721,0.3907338391,0.4741455002,-0.2376850017,-0.4847580465,0.3774150026,0.8266705772,-0.385278621,-0.839224896,-0.7962479811,-0.1842956553,0.7479632883,-0.4437070197,0.2073537361,-0.6571415891,0.5882293791,0.8275031762,-0.0938848312,-0.171647153,-0.0613179038,-0.5722975567,-0.8627968793,-0.9807485598,-0.1412037309,-0.8749677364,-0.2524447201,0.0437461663,-0.6487204244,0.5482365793,0.2983056835,0.5406008807,-0.1158496101,-0.4956750031,-0.4169081986,0.5855438569,-0.8431265547,0.7079758581,-0.3201596754,0.0301188223,0.26092242,-1.0569972556,-0.610302277,-1.0223208531,0.1918829387,0.0381650922,0.4486836189,0.1575743563,0.8223188723,0.7490683408,-0.6513940024,-0.0127364062,-0.8361919075,-0.92304262,-0.4144290982,0.604531321,0.8056022733,0.7050285572,-0.9747186427,0.039246524,-0.5904907745,-0.9382341402,0.5173266813,0.9061221244,-0.7101961462,-0.3447758118,-0.2793828182,0.348208388,-0.758628813,-0.2419962022,0.4630639447,0.8409201997,0.503328222,-0.9950353392,-0.6548213437,-0.5127485767,0.062565117,0.2686639695,-0.0943824446,0.8037731158,0.3580207281,-0.6540275505,-0.6929256594,-0.7455640736,-0.2889715168,-0.099091273,0.7920503354,0.7525939311,-0.3580995596,-0.0713759952,-0.8874128795,-0.9219130022,0.2142774117,0.8489716795,-0.2715539159,0.407845322,-0.6262705556,0.7728542491,-0.864605762,-0.8044878147,-0.5945640502,-1.0127589358,-0.4010015884,0.2631028133,-0.9767659057,-0.3437622835,0.4141655978,0.5421335519,-0.8977153144,-0.1140716411,0.2718800922,-0.4053183181,0.4606988145,-0.4119567811,0.5541935965,-0.0888912217,0.5290588819,-0.01367879,0.7664631371,-0.4886019766,-0.1193497476,-0.6496523369,-1.479494811,-0.3583890101,-0.5036542766,0.1118916128,0.9976492733,0.0922857149,-0.8541543946,0.9409382427,-0.602815607,0.7795904177,-0.2095274665,-0.5236850569,-1.5768213865,0.1207145834,-0.3530473393,-0.0087603691,0.0520713236,0.2260427528,1.4646008709,0.8358393598,-0.811179757,-0.5662674046,0.9475701509,-0.0707244863,-0.754109272,0.4488595168,0.605033585,-0.7948212477,-0.3637925269,0.8528717757,-0.7971688629,-0.2588285468,-0.7589076322,0.7239434076,0.2659497162,0.2062038592,0.9933940037,0.1013852763,-0.1241949747,-0.1517573208,0.7318257314,-0.3189869715,0.7205616452,-0.319459288,-0.1399405342,0.2510221611,-0.8705131846,-0.8534696137,-0.4216761251,-1.1009845667,-0.4534500458,0.0561493245,-0.4163953154,-0.2892570962,0.8369618427,-0.5166569318,-0.9411204883,0.5324528861,0.7586746947,-0.7424251463,0.444627023,-0.0499615651,-0.7004723773,-0.3133882995,-0.9290529046,-0.3323801688,0.1885126841,-0.1674699976,0.7231559085,-0.936266846,0.2482261365,0.1129888584,0.8046413787,-0.2301201639,0.0651411166,-0.8841467126,0.1947784742,-0.083052893,-0.258364723,-0.3237435714,-0.1596849698,-0.519428003,0.8501611502,-0.0545247201,-0.4296276082,-1.1847514299,-0.4998950916,0.25887005,0.2565362047,-0.351245514,0.2182090078,0.5023097678,0.7504012676,-0.9342992307,-0.2695070337,0.7817732265,-0.3426989574,-0.9887587985,-0.4648049408,0.5491168172,-0.5733328896,0.826736027,-0.7162421491,0.8512264285,-0.6054717458,0.7163979079,0.8650554391,0.3951984047,0.4632919803,0.0027494069,0.1333482294,0.4273216692,-0.6575349148,-0.9724041882,0.2441032817,0.5746268691,0.2720824257,-0.5392009069,-0.215660968,-0.6114777988,0.7146006069,0.1730351311,-0.1115784473,-0.8060734197,-0.0913730658,-0.5457526379,0.105711938,0.367163617,0.2350317139,-0.0945608393,0.2595451541,-0.6644385001,0.4145901533,-0.3208805067,-0.2850705121,-0.0383254221,0.2985734631,-0.8684565329,-0.8476106563,1.0095852408,-0.2460488468,0.1188746306,-0.4856125699,-0.0240306636,-1.0424383335,0.6544560736,-0.0176462708,-0.4942056565,0.5107540374,-0.2104359966,0.0882660523,-0.4340088197,-0.7132738316,0.8303170891,0.8718296156,0.816220596,-0.2169751502,0.2263730692,-0.486536733,0.8548046876,0.4368623115,1.4075038561,-0.2984123559,1.5429734844,0.2268673669,-0.3302914489,0.3066187057,-0.3718681201,0.0237134592,-0.095284551,0.2153378467,0.1535795602,0.2271832482,0.6692859719,-0.3545654556,-0.7002288835,0.5047817839,0.1911312641,0.2426678009,0.1858191617,0.6125370094,-1.0948442251,0.6809868869,0.1596516271,-0.2194188336,-0.7358892004,-0.312261743,0.4356917671,-0.1882570971,1.0187673149,0.9376937982,-0.2454922333,-0.1296142497,-0.4798791753,-0.1175717392,-0.2702258349,-1.3058138661,0.6441049762,-0.3559277824,0.3386971177,0.5396153827,-0.6490175929,-0.1419067777,0.0721899292,0.9962673667,0.8294960169,-0.1144122517,-0.8879341043,-0.1456563483,-0.0613870527,-0.1828278432,-0.8250127721,0.6619570834,-0.9733648274,0.7137303821,-0.5119176473,0.4060339542,0.9660674789,-0.355176869,-0.1244984909,-0.2920347939,-0.3188253536,-0.0643583595,-0.6218131211,0.7885708444,-0.6565305983,0.560498228,0.9332033148,0.3146125847,-0.4423182067,-0.4938683412,0.0308796952,0.9089827776,-0.7318488302,1.1664943855,0.0023721424,0.2395016922,-0.5545662354,0.7765329439,0.3109785828
##end
biasActivation=0,1,1,1,1
[BASIC:ACTIVATION]
"org.encog.engine.network.activation.ActivationSoftMax"
"org.encog.engine.network.activation.ActivationReLU",0,0
"org.encog.engine.network.activation.ActivationReLU",0,0
"org.encog.engine.network.activation.ActivationReLU",0,0
"org.encog.engine.network.activation.ActivationLinear"
